digraph Tree {
node [shape=box] ;
0 [label="X[3] <= 17.035\ngini = 0.4832\nsamples = 261\nvalue = [252, 174]"] ;
1 [label="X[0] <= 0.1464\ngini = 0.1381\nsamples = 171\nvalue = [248, 20]"] ;
0 -> 1 [labeldistance=2.5, labelangle=45, headlabel="True"] ;
2 [label="X[3] <= 16.675\ngini = 0.0316\nsamples = 159\nvalue = [245, 4]"] ;
1 -> 2 ;
3 [label="X[3] <= 14.985\ngini = 0.0165\nsamples = 155\nvalue = [239, 2]"] ;
2 -> 3 ;
4 [label="gini = 0.0\nsamples = 129\nvalue = [200, 0]"] ;
3 -> 4 ;
5 [label="X[3] <= 15.0\ngini = 0.0928\nsamples = 26\nvalue = [39, 2]"] ;
3 -> 5 ;
6 [label="gini = 0.0\nsamples = 1\nvalue = [0, 1]"] ;
5 -> 6 ;
7 [label="X[0] <= 0.1103\ngini = 0.0487\nsamples = 25\nvalue = [39, 1]"] ;
5 -> 7 ;
8 [label="gini = 0.0\nsamples = 17\nvalue = [29, 0]"] ;
7 -> 8 ;
9 [label="X[3] <= 15.54\ngini = 0.1653\nsamples = 8\nvalue = [10, 1]"] ;
7 -> 9 ;
10 [label="gini = 0.0\nsamples = 3\nvalue = [6, 0]"] ;
9 -> 10 ;
11 [label="X[2] <= 0.0254\ngini = 0.32\nsamples = 5\nvalue = [4, 1]"] ;
9 -> 11 ;
12 [label="gini = 0.0\nsamples = 1\nvalue = [0, 1]"] ;
11 -> 12 ;
13 [label="gini = 0.0\nsamples = 4\nvalue = [4, 0]"] ;
11 -> 13 ;
14 [label="X[2] <= 0.0538\ngini = 0.375\nsamples = 4\nvalue = [6, 2]"] ;
2 -> 14 ;
15 [label="gini = 0.0\nsamples = 2\nvalue = [0, 2]"] ;
14 -> 15 ;
16 [label="gini = 0.0\nsamples = 2\nvalue = [6, 0]"] ;
14 -> 16 ;
17 [label="X[2] <= 0.0557\ngini = 0.2659\nsamples = 12\nvalue = [3, 16]"] ;
1 -> 17 ;
18 [label="gini = 0.0\nsamples = 2\nvalue = [3, 0]"] ;
17 -> 18 ;
19 [label="gini = 0.0\nsamples = 10\nvalue = [0, 16]"] ;
17 -> 19 ;
20 [label="X[3] <= 17.51\ngini = 0.0494\nsamples = 90\nvalue = [4, 154]"] ;
0 -> 20 [labeldistance=2.5, labelangle=-45, headlabel="False"] ;
21 [label="X[2] <= 0.0596\ngini = 0.42\nsamples = 8\nvalue = [3, 7]"] ;
20 -> 21 ;
22 [label="X[2] <= 0.0313\ngini = 0.375\nsamples = 4\nvalue = [3, 1]"] ;
21 -> 22 ;
23 [label="gini = 0.0\nsamples = 1\nvalue = [0, 1]"] ;
22 -> 23 ;
24 [label="gini = 0.0\nsamples = 3\nvalue = [3, 0]"] ;
22 -> 24 ;
25 [label="gini = 0.0\nsamples = 4\nvalue = [0, 6]"] ;
21 -> 25 ;
26 [label="X[1] <= 127.8\ngini = 0.0134\nsamples = 82\nvalue = [1, 147]"] ;
20 -> 26 ;
27 [label="X[1] <= 126.05\ngini = 0.1049\nsamples = 10\nvalue = [1, 17]"] ;
26 -> 27 ;
28 [label="gini = 0.0\nsamples = 9\nvalue = [0, 17]"] ;
27 -> 28 ;
29 [label="gini = 0.0\nsamples = 1\nvalue = [1, 0]"] ;
27 -> 29 ;
30 [label="gini = 0.0\nsamples = 72\nvalue = [0, 130]"] ;
26 -> 30 ;
}