digraph Tree {
node [shape=box] ;
0 [label="X[0] <= 0.1436\ngini = 0.4777\nsamples = 266\nvalue = [258, 168]"] ;
1 [label="X[1] <= 117.45\ngini = 0.1115\nsamples = 170\nvalue = [254, 16]"] ;
0 -> 1 [labeldistance=2.5, labelangle=45, headlabel="True"] ;
2 [label="X[2] <= 0.0516\ngini = 0.0528\nsamples = 164\nvalue = [251, 7]"] ;
1 -> 2 ;
3 [label="X[3] <= 15.795\ngini = 0.0245\nsamples = 152\nvalue = [239, 3]"] ;
2 -> 3 ;
4 [label="X[0] <= 0.0295\ngini = 0.0089\nsamples = 137\nvalue = [223, 1]"] ;
3 -> 4 ;
5 [label="X[0] <= 0.0287\ngini = 0.05\nsamples = 25\nvalue = [38, 1]"] ;
4 -> 5 ;
6 [label="gini = 0.0\nsamples = 24\nvalue = [38, 0]"] ;
5 -> 6 ;
7 [label="gini = 0.0\nsamples = 1\nvalue = [0, 1]"] ;
5 -> 7 ;
8 [label="gini = 0.0\nsamples = 112\nvalue = [185, 0]"] ;
4 -> 8 ;
9 [label="X[2] <= 0.0234\ngini = 0.1975\nsamples = 15\nvalue = [16, 2]"] ;
3 -> 9 ;
10 [label="X[0] <= 0.0847\ngini = 0.5\nsamples = 2\nvalue = [1, 1]"] ;
9 -> 10 ;
11 [label="gini = 0.0\nsamples = 1\nvalue = [1, 0]"] ;
10 -> 11 ;
12 [label="gini = 0.0\nsamples = 1\nvalue = [0, 1]"] ;
10 -> 12 ;
13 [label="X[2] <= 0.0442\ngini = 0.1172\nsamples = 13\nvalue = [15, 1]"] ;
9 -> 13 ;
14 [label="gini = 0.0\nsamples = 9\nvalue = [12, 0]"] ;
13 -> 14 ;
15 [label="X[1] <= 109.2\ngini = 0.375\nsamples = 4\nvalue = [3, 1]"] ;
13 -> 15 ;
16 [label="gini = 0.0\nsamples = 1\nvalue = [0, 1]"] ;
15 -> 16 ;
17 [label="gini = 0.0\nsamples = 3\nvalue = [3, 0]"] ;
15 -> 17 ;
18 [label="X[1] <= 103.0\ngini = 0.375\nsamples = 12\nvalue = [12, 4]"] ;
2 -> 18 ;
19 [label="gini = 0.0\nsamples = 4\nvalue = [7, 0]"] ;
18 -> 19 ;
20 [label="X[2] <= 0.0538\ngini = 0.4938\nsamples = 8\nvalue = [5, 4]"] ;
18 -> 20 ;
21 [label="gini = 0.0\nsamples = 2\nvalue = [0, 3]"] ;
20 -> 21 ;
22 [label="X[1] <= 105.1\ngini = 0.2778\nsamples = 6\nvalue = [5, 1]"] ;
20 -> 22 ;
23 [label="gini = 0.0\nsamples = 1\nvalue = [0, 1]"] ;
22 -> 23 ;
24 [label="gini = 0.0\nsamples = 5\nvalue = [5, 0]"] ;
22 -> 24 ;
25 [label="X[3] <= 19.81\ngini = 0.375\nsamples = 6\nvalue = [3, 9]"] ;
1 -> 25 ;
26 [label="gini = 0.0\nsamples = 4\nvalue = [0, 7]"] ;
25 -> 26 ;
27 [label="X[3] <= 21.07\ngini = 0.48\nsamples = 2\nvalue = [3, 2]"] ;
25 -> 27 ;
28 [label="gini = 0.0\nsamples = 1\nvalue = [3, 0]"] ;
27 -> 28 ;
29 [label="gini = 0.0\nsamples = 1\nvalue = [0, 2]"] ;
27 -> 29 ;
30 [label="X[1] <= 107.25\ngini = 0.05\nsamples = 96\nvalue = [4, 152]"] ;
0 -> 30 [labeldistance=2.5, labelangle=-45, headlabel="False"] ;
31 [label="X[0] <= 0.1863\ngini = 0.4444\nsamples = 7\nvalue = [4, 8]"] ;
30 -> 31 ;
32 [label="X[3] <= 15.475\ngini = 0.4444\nsamples = 4\nvalue = [4, 2]"] ;
31 -> 32 ;
33 [label="gini = 0.0\nsamples = 3\nvalue = [4, 0]"] ;
32 -> 33 ;
34 [label="gini = 0.0\nsamples = 1\nvalue = [0, 2]"] ;
32 -> 34 ;
35 [label="gini = 0.0\nsamples = 3\nvalue = [0, 6]"] ;
31 -> 35 ;
36 [label="gini = 0.0\nsamples = 89\nvalue = [0, 144]"] ;
30 -> 36 ;
}